Layer 1:
weights:
Layer 1:
weights:
[[-0.05159956, 0.07363379, 0.05179338,..., 0.06980406, 0.03746215, 0.07076256],
 [ 0.04628853,-0.04112158, 0.08154033,...,-0.06126275, 0.00804912, 0.0256205 ],
 [-0.08181988,-0.07686182,-0.00522049,..., 0.06618337, 0.01248617, 0.0128154 ],
 ...,
 [ 0.04812372, 0.01160318,-0.06262227,...,-0.05256839, 0.04489729, 0.0576296 ],
 [ 0.06245171, 0.08087204,-0.02860136,...,-0.01384944, 0.07165459,-0.05308107],
 [-0.06314553,-0.0538625 ,-0.08541784,...,-0.02958388, 0.00524977, 0.01674899]]
Layer 2:
weights:
[[ 0.43687138, 0.13225386,-0.1011548 , 0.33078074,-0.05935461,-0.23906115, 0.05436442,-1.2721945 , 0.38447362, 0.5467014 ,-0.34517983,-0.63116556,-0.167608  , 0.376336  ,-0.17015341, 0.3552854 ],
 [-0.3154074 ,-0.22084124, 0.04966335, 0.61079484,-0.25534794,-0.17639968,-0.4539104 , 0.491158  , 0.27557003, 0.36600617,-0.18905129, 0.70259774,-0.20769043,-0.43807313,-0.611043  , 0.07490573],
 [ 0.15618648,-0.21789216, 0.44956282, 0.038484  ,-0.16719824,-0.4916724 , 0.2800643 , 0.21870005, 0.5970686 ,-0.04722034,-0.24514453,-0.18162526,-0.15214027, 0.2997844 , 0.5371378 ,-0.3086862 ],
 [-0.7122717 , 0.00549633,-0.066182  , 0.18738255, 0.3911696 ,-0.14552414, 0.209838  ,-0.29027203,-0.7547325 , 0.52785707, 0.64016175, 0.27098358, 0.4810556 ,-0.42966294, 0.13432194, 0.08521093],
 [-0.4997235 ,-0.3643903 , 0.37500674,-0.3020529 , 0.10822535,-0.08534557,-0.7106409 ,-0.5954208 , 0.10895882,-0.5498044 , 0.29220435, 0.9042302 , 0.04786443, 0.8586685 ,-0.46017066, 0.10249831],
 [-0.09499405, 0.03029207, 0.7137464 ,-0.19058889,-0.4017944 ,-0.26253808,-0.20728683,-0.3679922 , 0.2854894 , 0.01646678, 0.01650307,-0.73359835, 0.3906898 , 0.31777346,-0.26582104, 0.8606861 ],
 [ 0.04859922,-0.30298057,-0.9090358 ,-0.49138635,-0.03592628, 0.15698624, 0.49099287, 0.11472896, 0.2924244 , 0.09167483, 0.3310883 , 0.5506588 ,-0.6567786 ,-0.748296  , 0.26356038,-0.11088465],
 [-0.56001514, 0.12237603,-0.48451295, 0.03448569,-0.09535545, 0.57549334,-0.2037372 ,-0.04815939, 0.7630062 , 0.25469476,-0.16698073, 0.39422962,-0.43614662, 0.5199694 , 0.33618507, 0.01114426],
 [ 0.18481697,-0.09720735, 0.8542811 ,-0.41065168,-0.13453162,-0.03269512, 0.23449889,-0.27556258, 0.36810315,-0.42118818, 0.09143521,-0.84470445, 0.4108056 , 0.59040046, 0.8955231 , 0.687746  ],
 [ 0.50014144,-0.23615177, 0.38376752,-0.5500257 ,-0.13154417,-0.49365708, 0.50093484, 0.0185572 , 0.04833063,-0.09518816, 0.12785849,-0.63595825, 0.12651125,-0.26632884,-0.06537572,-0.08950271],
 [ 0.12450361,-0.18876475,-0.6132322 , 0.09461497,-0.2143843 , 0.26474708,-0.21621236,-0.21113239, 0.17222638,-0.4822117 , 0.47115418, 0.05748192, 0.14587401, 0.4397895 ,-0.61943084, 0.40465572],
 [ 0.42515197,-0.03436289, 0.27377477,-0.54365265,-0.26014665,-0.16992287,-0.6390573 , 0.51207274, 0.02317182, 0.2382719 , 0.19857763,-0.3660397 ,-0.28041267, 0.12769827, 0.05416188, 0.4434902 ],
 [ 0.5830418 , 0.11381012, 0.6238625 , 0.4148311 , 0.42913258,-0.583864  , 0.49843055,-0.21745394,-0.07729194,-0.01472597,-0.14302826, 0.23011936, 0.62890583, 0.27570164, 0.08349637,-0.38921756],
 [ 0.13037309,-0.2766037 , 0.33420092,-0.6502388 , 0.05981436, 0.4559513 , 0.6741184 ,-0.3561492 ,-0.7871833 , 0.04008723, 0.136706  , 0.43200696,-0.23819831,-0.41623047,-0.05056486,-0.6174249 ],
 [-0.53689325, 0.3806218 ,-0.34514275, 0.964954  ,-0.43861094, 0.00754192,-0.8502514 ,-0.08125007,-0.1802104 ,-0.07303911, 0.5554174 ,-0.00972399, 0.012205  ,-0.01935843, 0.0420767 , 0.15841383],
 [ 0.14431329,-0.4001166 , 0.09808163, 0.87642884,-0.30255878, 0.52933   ,-0.30782172, 0.5312578 ,-0.29748005, 0.6813679 , 0.1675491 ,-0.52935153,-0.09405329, 0.12713376, 0.50092626,-0.05241326]]
Layer 3:
weights:
[[ 0.20101668,-0.41500822, 0.2864256 ,-0.04462597, 0.3203972 , 0.57307005, 0.6773154 ,-0.25090396, 0.1255988 , 0.46740848, 0.57158476, 0.29545918, 0.03985954, 0.40759152,-0.01800617, 0.24099874],
 [-0.02150079, 0.09322217,-0.02665666, 0.15304896, 0.00433649, 0.19195352, 0.09783796, 0.11698629, 0.23635136,-0.249892  ,-0.4180879 , 0.41327822, 0.16327122, 0.40147585,-0.08828736, 0.3441031 ],
 [-0.49924168,-0.12782553, 0.32271993,-0.4205606 , 0.70753044, 0.17446335,-0.2921818 , 0.16274154, 0.16388805,-0.11151565, 0.58596724,-0.5551736 ,-0.4557585 ,-0.24410923, 0.1593288 , 0.01815297],
 [ 0.10075153,-0.10157172,-0.8798916 ,-0.27088815,-0.4576649 ,-0.06996598,-0.4304623 , 0.23752727, 0.3014414 ,-0.19956125, 0.19644336,-0.2724954 , 0.20039845, 0.3736903 , 0.67329276, 0.19374868],
 [ 0.41832116,-0.14624932,-0.23604213,-0.3133992 , 0.28817993,-0.02749605, 0.23582222,-0.24506466, 0.123349  ,-0.150264  ,-0.01373098, 0.31877545,-0.24065797, 0.33005217, 0.5065744 ,-0.26745382],
 [-0.35930976,-0.33408913,-0.15511498,-0.32996416, 0.06312264,-0.42137995,-0.11774608, 0.4421568 , 0.09652348,-0.14318876, 0.20724261,-0.16320172, 0.19896951,-0.1623097 ,-0.63841015,-0.17567693],
 [ 0.34905225,-0.14750805, 0.22153194, 0.0514431 , 0.42881104, 0.39672282,-0.09885845,-0.39513588,-0.08326903, 0.28335476, 0.292246  , 0.9013945 ,-0.5054091 , 0.07265683, 0.27633753, 0.16784243],
 [ 0.50371367,-0.36546084,-0.3088606 ,-0.28886634, 0.56010294, 0.5478905 , 0.26613998,-0.41232893,-0.19886413,-0.41392782, 0.34272406, 0.28616002,-0.22567497, 0.26702517, 0.33838183, 0.35784692],
 [-0.08642563,-0.14856961,-0.46585265,-0.37364718, 0.5495488 ,-0.07658762, 0.48350334, 0.19904324,-0.11491223,-0.5600039 , 0.24078035, 0.0769197 , 0.6115996 ,-0.11271768,-0.6159417 ,-0.2421268 ],
 [ 0.6259676 , 0.14563714, 0.3555969 , 0.05996037, 0.0781464 ,-0.3631087 , 0.06723149, 0.84523   ,-0.23924614, 0.7265095 , 0.2732249 ,-0.00952071,-0.3335174 ,-0.45892012, 0.3461823 , 0.41074696],
 [ 0.17134307, 0.06919239,-0.02865249,-0.41482913,-0.12928727, 0.34486175,-0.1904923 , 0.05148899,-0.26243988, 0.02474634,-0.5464397 ,-0.7238791 ,-0.34866127,-0.48839214,-0.04484561, 0.47084653],
 [-0.28655046,-0.2310068 ,-0.63685584,-0.11190501,-0.5574882 , 0.30819708,-0.03526451,-0.6255173 ,-0.37468562, 0.2865218 , 0.30258512, 0.03416405, 0.34106478,-0.51452315, 0.517616  , 0.42581713],
 [-0.07256985,-0.07828865, 0.26071134,-0.15954792, 0.6151088 ,-0.48013136,-0.1723552 ,-0.427285  , 0.20444188, 0.09315584,-0.17222945, 0.01278594,-0.5177767 , 0.22902916,-0.14098614,-0.3239652 ],
 [-0.0602953 ,-0.35892713, 0.67203164, 0.27091208, 0.590076  ,-0.19459043, 0.03869918, 0.3766885 ,-0.23246899,-0.04771841, 0.3091777 ,-0.548237  , 0.43306807, 0.47348312,-0.13736196,-0.67972463],
 [-0.00929361,-0.03619213,-0.5174851 ,-0.27232933,-0.4275487 , 0.03740824,-0.04674277,-0.07004946, 0.08223847,-0.4917072 , 0.08348593, 0.27164942,-0.6259937 ,-0.24355912, 0.6336705 ,-0.46110347],
 [ 0.546591  ,-0.12825282, 0.50093144,-0.04443127, 0.14116345, 0.36311823,-0.5292359 , 0.45128962,-0.09678514,-0.12235379,-0.01325119,-0.37172195, 0.5834915 , 0.5037493 , 0.5106022 , 0.3066264 ]]
Layer 4:
weights:
[[ 0.39883524,-0.0721336 ,-0.26354322,-0.59885675, 0.5091604 , 0.2792397 , 0.03091322,-0.24710527, 0.65102124,-0.33499426, 0.12463426, 0.55823046, 0.04199517,-0.5310633 , 0.5395369 ,-0.07355313],
 [-0.17787978,-0.4028622 ,-0.34953195, 0.36561403, 0.3178861 ,-0.0778296 , 0.29315948,-0.18523382, 0.34869924,-0.36023074, 0.07070231, 0.28759247, 0.40005925,-0.3373427 , 0.23967826, 0.42790583],
 [-0.06852544,-0.4986133 ,-0.06902241,-0.38586625, 0.6337799 , 0.1930503 , 0.04008466, 0.4039169 , 0.05539616,-0.2816453 , 0.67262536,-0.7197858 , 0.05441481,-0.20843017,-0.34399068,-0.28264984],
 [ 0.02280492,-0.04003063,-0.22810775,-0.15586162,-0.11368847,-0.38388097,-0.39795122,-0.23138763,-0.28004116,-0.103497  , 0.2499027 , 0.40907452, 0.03615022,-0.06530532, 0.4221799 , 0.3124486 ],
 [-0.04321168, 0.03357887, 0.00499603, 0.69437206, 0.43665347, 0.20429383,-0.41023028,-0.05175216, 0.4844647 ,-0.4087167 , 0.5327595 , 0.6295227 , 0.1260464 ,-0.00242752,-0.58612233, 0.62271863],
 [ 0.31721842,-0.7772265 ,-0.4464893 , 0.0820279 , 0.21216688,-0.30018213,-0.2788426 ,-0.32895938,-0.00997333,-0.0348915 , 0.5460749 , 0.07662655,-0.0549043 ,-0.00930704, 0.24750344,-0.31985965],
 [ 0.26432958, 0.23464529,-0.21349885, 0.3500917 ,-0.3993094 ,-0.08635323,-0.07455512,-0.3493508 , 0.0175542 ,-0.25071788,-0.40447894,-0.10228678,-0.10320511,-0.5161308 ,-0.02982616, 0.05001851],
 [ 0.39639002, 0.39441308, 0.5316759 , 0.23363405,-0.24883002, 0.1911244 ,-0.10529029, 0.08840634, 0.6407287 ,-0.40071055,-0.31838268,-0.18265815, 0.06243591,-0.64752805, 0.06001925,-0.11106215],
 [-0.00306797, 0.04545161,-0.27118123,-0.1839691 , 0.20515539, 0.00790148,-0.30114213,-0.15705429,-0.42334488, 0.20445025,-0.17655826,-0.23829894, 0.39494005,-0.31215358, 0.02408871,-0.00460796],
 [-0.24982812, 0.15661015, 0.31293064,-0.2815285 , 0.6753723 ,-0.2873018 ,-0.41861644,-0.01210757,-0.36435565,-0.3752822 ,-0.42517874, 0.4992349 ,-0.29523006, 0.3309309 , 0.16326822,-0.12620465],
 [-0.3111088 ,-0.12064911,-0.47035596, 0.6804981 , 0.26339188,-0.3121222 , 0.24867389, 0.00536438, 0.3107547 , 0.06530081, 0.31667942, 0.27608013,-0.4002107 ,-0.49660176, 0.51454353, 0.53993523],
 [-0.75134355, 0.03333872,-0.35131055, 0.4083483 , 0.69026685, 0.42215422,-0.16361405,-0.23149332,-0.50070846,-0.12075359, 0.08186968, 0.3863727 ,-0.34413406, 0.5182773 , 0.16324279, 0.34954527],
 [ 0.37749636, 0.39010334, 0.22668383,-0.3148937 ,-0.59563047,-0.19157232,-0.39222163,-0.19924463, 0.00271194,-0.10682805,-0.11415173,-0.2898766 ,-0.25130516, 0.32871428, 0.48302662, 0.43419445],
 [ 0.7450926 ,-0.14209609, 0.03444412,-0.02977626, 0.01824526, 0.19376658, 0.18420155, 0.39576587, 0.09650522, 0.12750623, 0.31617814,-0.4625573 ,-0.25425485, 0.03778842, 0.3200326 , 0.29660398],
 [-0.19636117, 0.45414254, 0.23535936,-0.17104253, 0.08673088,-0.2883938 ,-0.06694147,-0.4257081 ,-0.12900758,-0.04913553,-0.29176056, 0.18963234,-0.42435235, 0.22080876, 0.87784994,-0.7853281 ],
 [ 0.11391503,-0.4943219 ,-0.06645141,-0.73123664,-0.07169269,-0.30131286, 0.14460158,-0.3615762 ,-0.33353317, 0.05739282, 0.43050218,-0.2587422 , 0.00469132, 0.3904388 , 0.2841933 , 0.5399362 ]]
Layer 5:
weights:
[[-0.3714585 ,-0.47259086, 0.27587992,-0.60627604,-0.19893822,-0.27312878,-0.05603013, 0.18611789, 0.4989057 , 0.5716107 ,-0.07090526,-0.15742534, 0.2037116 ,-0.3870756 , 0.26497668, 0.09411639],
 [-0.6233743 ,-0.4595951 ,-0.43745118,-0.256225  ,-0.02256498,-0.25811577, 0.13894211,-0.15732978,-0.20994417,-0.28620765,-0.02535887,-0.39121214, 0.7104172 , 0.04676992, 0.37950933, 0.11108696],
 [-0.23775578,-0.15033178, 0.15653193, 0.39252076,-0.4053563 ,-0.4058536 ,-0.13064015,-0.04726724,-0.28121677,-0.08324955, 0.19557609, 0.09965983,-0.09571753, 0.234343  , 0.40739828, 0.38380894],
 [-0.36154532, 0.41908327, 0.4426099 , 0.53815514, 0.08107311, 0.12608863,-0.21143535, 0.09333262,-0.9316218 ,-0.31025338,-0.01636599,-0.09128079,-0.10384282,-0.17095827,-0.484528  , 0.33805522],
 [ 0.74826294, 0.4391486 , 0.11213443, 0.85522205, 0.2684981 , 0.05435978,-0.3852486 ,-0.5018607 , 0.25744456, 0.37871027, 0.05153379,-0.4167982 ,-0.04659787,-0.33775172,-0.28868985,-0.20530395],
 [-0.4575852 ,-0.3377086 , 0.29458144, 0.36973846,-0.24457435, 0.41063014, 0.25269333, 0.27817565, 0.01244953, 0.12508889, 0.28824383, 0.22050413, 0.07521523, 0.10254306,-0.09545123,-0.34635133],
 [-0.30620828, 0.42902333, 0.15166074,-0.00187252, 0.07271455, 0.29338962, 0.0218028 , 0.3602916 ,-0.3193587 , 0.23992406, 0.41147056,-0.1043393 , 0.07065723, 0.12564743,-0.01683332, 0.16392057],
 [ 0.35977182, 0.16237308, 0.47050583,-0.14342242,-0.10052563, 0.19238885, 0.40564734,-0.1374005 , 0.24763943, 0.04911269,-0.3448008 , 0.3958815 , 0.11539718, 0.08028685, 0.14590989, 0.39625466],
 [-0.25426325,-0.49261945, 0.31949073,-0.21233858, 0.50956064,-0.6153671 , 0.23074475,-0.7006011 ,-0.00220446, 0.31823972, 0.37509573,-0.40256804, 0.44345248, 0.02019795,-0.36128646,-0.46270618],
 [-0.21361288, 0.04599202, 0.1604158 ,-0.03883688, 0.11261525,-0.11269121,-0.21563907,-0.38530618, 0.24337448, 0.30073506, 0.34959647, 0.17995337, 0.11060821, 0.08437243,-0.24109444,-0.09511083],
 [ 0.48800752, 0.20281568, 0.14957866,-0.12931904, 0.32241014,-0.15943702, 0.06329165, 0.08345477, 0.20555179, 0.34667376, 0.29727808, 0.03035206,-0.5776231 , 0.33986086,-0.7093991 ,-0.02634952],
 [ 0.17161974,-0.13387562, 0.31297642, 0.7393912 , 0.45868307, 0.4234389 , 0.00627695,-0.21014506, 0.03554781,-0.13011758,-0.4139567 , 0.23888066, 0.45989308,-0.33956984,-0.531503  , 0.14188944],
 [-0.03245194,-0.14632905, 0.11546401,-0.38704935, 0.30598387, 0.15015174, 0.35236064,-0.06472143, 0.2456709 , 0.16037436, 0.05785173,-0.21785857,-0.39717203,-0.43369794,-0.1272341 ,-0.25227493],
 [ 0.39502347, 0.34940866,-0.01064743,-0.34583297,-0.55011535, 0.45624244,-0.33387944, 0.3652736 , 0.03970323, 0.18447152,-0.39112362,-0.38077372, 0.13254063,-0.11825253,-0.30608633,-0.21193819],
 [ 0.5467068 ,-0.51988924,-0.10271841, 0.21329145, 0.05856902, 0.8575775 , 0.16312392, 0.12854618, 0.61128205,-0.3492255 ,-0.6344332 ,-0.42293435, 0.77809787,-0.32657567, 0.5790853 ,-0.12257808],
 [ 0.33375332, 0.07971223,-0.10363027, 0.335122  , 0.0124491 , 0.3217825 , 0.85810673,-0.1095287 ,-0.48322776, 0.40653586,-0.25063226,-0.43139443, 0.41353527, 0.33995837,-0.3077647 , 0.66707045]]
Layer 6:
weights:
[[ 0.7769712 , 0.13459276, 0.20851696,-0.10718712,-0.14852232, 0.15361656,-0.76143956,-0.07399794,-0.23158655,-0.22438177, 0.05971896, 0.0057912 ,-0.33958286, 0.08401974,-0.3626806 , 0.24867043],
 [-0.2036616 ,-0.4469768 ,-0.39849806,-0.1070517 ,-0.5953388 , 0.38417128, 0.33321825, 0.39765778,-0.12312432, 0.06233072, 0.2801817 ,-0.0607333 , 0.42611387, 0.22107564,-0.3828075 , 0.28752038],
 [ 0.2869658 , 0.49405044,-0.06075064,-0.02520066,-0.04610163, 0.14628242, 0.32948658,-0.11162861, 0.38605028,-0.19518341, 0.4946898 ,-0.05318524,-0.00368676,-0.22376163,-0.01963698,-0.49387133],
 [ 0.6414018 ,-0.13061456, 0.06033564,-0.16650578, 0.39610142, 0.67954344, 0.45674074,-0.18308285, 0.03074477, 0.00816265,-0.12898563,-0.41495258, 0.09688667, 0.3326269 , 0.1751828 ,-0.36737478],
 [-0.05920247, 0.2947404 , 0.25637898, 0.17975041, 0.2844232 , 0.18139848, 0.3690942 , 0.15159598, 0.3910894 ,-0.16927803, 0.5745498 ,-0.47805208,-0.39257717, 0.17525674,-0.29195967,-0.42156482],
 [ 0.6542095 ,-0.38764888,-0.1798551 , 0.01285586, 0.3435199 ,-0.20002553, 0.14623976,-0.65348434, 0.15829328,-0.18138447,-0.31051207, 0.35054412,-0.06858377,-0.04303648,-0.17633954, 0.54376197],
 [ 0.34999442, 0.47321773, 0.07429221,-0.0048458 ,-0.27142116,-0.00315477, 0.69201964, 0.37731856, 0.01422374, 0.11759523,-0.02946989, 0.20356832,-0.28089345, 0.05271573,-0.28231606, 0.54654825],
 [-0.31505919, 0.19333214,-0.0328402 ,-0.34907493, 0.00882524, 0.28024805,-0.58631325, 0.04472671,-0.20585255, 0.19772258,-0.22916244, 0.78388435,-0.2385682 , 0.09271275,-0.29162082, 0.11857835],
 [-0.06222928, 0.49784997, 0.6793183 ,-0.3466195 , 0.64865637, 0.14033936,-0.619661  ,-0.09220102,-0.10175312,-0.16439971, 0.3343909 , 0.63150376,-0.25068116,-0.03303259, 0.07278356,-0.3019235 ],
 [-0.16352086, 0.17549114,-0.20641544,-0.3434222 ,-0.3448934 ,-0.41345608,-0.42819485, 0.29072735, 0.34193686, 0.00302035, 0.24532181, 0.21104525,-0.00512875, 0.26983935, 0.04904564, 0.25020826],
 [-0.38173664,-0.1663591 ,-0.46944228,-0.22688706,-0.06102674,-0.23127836,-0.0478831 ,-0.5039828 , 0.190957  ,-0.02720514, 0.28792593,-0.29181376,-0.08486184, 0.3109862 ,-0.39460728, 0.10188   ],
 [ 0.19239327,-0.23843993,-0.05881184, 0.00473905,-0.12489891, 0.04370004,-0.17714563, 0.15053877, 0.2774932 , 0.07995424,-0.08959678, 0.08191666,-0.40615422,-0.2295219 , 0.42128184,-0.2998763 ],
 [-0.38931796,-0.12429877, 0.40538606,-0.07080936, 0.79115736,-0.31668797, 0.7462171 , 0.19341514, 0.27597284,-0.03728667,-0.10869993, 0.55327237, 0.09774251,-0.6527645 ,-0.37930563, 0.6881139 ],
 [ 0.28375953, 0.35605717,-0.39349958, 0.18484804,-0.03909279,-0.05560493,-0.38419142,-0.03532268,-0.04697802,-0.21285295,-0.19668801, 0.37078863,-0.16337247,-0.29571968,-0.2197117 ,-0.4471456 ],
 [-0.18068722,-0.6831616 ,-0.4462677 ,-0.27626076, 0.25125104,-0.3460267 , 0.49591032,-0.5098209 ,-0.47466612,-0.13544953,-0.53612834, 0.33366105, 0.39630848,-0.10482468,-0.15366985,-0.22055753],
 [ 0.40993598, 0.15713021, 0.07274423, 0.16026226,-0.09669992,-0.3200582 ,-0.40023914, 0.33285165, 0.5082948 ,-0.04911056, 0.19360541,-0.13031939, 0.1754976 ,-0.06686268, 0.14419149, 0.37377828]]
Layer 7:
weights:
[[-1.50612295e-01, 1.07793480e-01,-2.82400638e-01, 5.65942645e-01, 2.86346704e-01, 1.40033662e-01,-2.91832596e-01, 2.02783361e-01,-5.49328983e-01,-1.51355147e-01,-2.23924965e-01,-4.25177425e-01, 5.39309800e-01,-5.21954522e-02,-6.91871285e-01, 2.58575946e-01],
 [ 8.61854181e-02,-4.11977679e-01,-2.51604766e-01, 3.31754610e-02, 4.41960752e-01,-2.08054438e-01, 3.75582606e-01,-6.17478192e-02,-2.38283753e-01, 6.66371346e-01,-3.24183553e-01, 3.30787838e-01,-3.22742611e-01,-2.68414114e-02, 3.65623742e-01,-4.15453613e-01],
 [ 2.61395089e-02,-1.00919962e-01,-3.79223078e-02, 3.97043943e-01, 3.55276555e-01,-3.04106474e-01,-3.00318822e-02,-9.08867717e-01,-7.97931664e-03, 1.38642967e-01,-1.95695400e-01,-3.35228801e-01, 1.71264619e-01, 1.33795431e-02, 1.82587862e-01,-3.47638011e-01],
 [-6.26752377e-02,-2.12442264e-01,-2.86911547e-01, 4.16057378e-01, 2.12813944e-01,-1.38010353e-01, 3.41606885e-01, 3.48649591e-01, 2.93137223e-01, 1.05663329e-01,-2.65321434e-01,-8.60249400e-02,-4.26324904e-01,-2.29854748e-01, 1.22761875e-01,-1.41598612e-01],
 [-1.78011116e-02,-1.07596368e-01, 1.79918587e-01, 4.84149098e-01, 2.94937819e-01,-1.30542234e-01, 3.93949859e-02,-1.08435786e+00, 7.15342045e-01,-6.07850438e-04,-3.08086157e-01, 1.28395960e-01, 5.24133205e-01, 8.25064600e-01, 3.49757463e-01,-1.33690953e-01],
 [ 3.25176746e-01,-8.56330991e-03, 2.47648135e-01, 3.22185569e-02, 2.82515883e-01,-4.25531894e-01, 4.40860242e-01,-1.32219866e-01, 2.55993068e-01,-1.99014708e-01, 2.46539429e-01,-6.09136820e-02, 2.53415465e-01,-6.02189265e-02,-3.61056238e-01,-3.04795444e-01],
 [-3.74142259e-01, 1.65823609e-01, 2.08569378e-01,-8.08820501e-02,-9.51955140e-01, 6.06505163e-02,-1.60995618e-01, 5.03583670e-01, 2.17741981e-01, 3.99071932e-01,-8.71928334e-02,-2.51437098e-01, 3.91780198e-01, 7.22775102e-01, 6.94670498e-01,-1.46784559e-01],
 [ 1.90143213e-01, 2.70959049e-01, 6.09290600e-01,-2.22665742e-01,-1.44339606e-01, 1.43984050e-01,-4.50938717e-02,-2.25106269e-01,-1.71202913e-01, 4.16681319e-01, 1.26015633e-01,-3.66802990e-01, 9.87621322e-02,-7.17419147e-01,-1.77172467e-01,-9.34944525e-02],
 [-7.00876862e-03,-2.23265871e-01,-4.43056785e-02,-4.94512208e-02, 6.72022030e-02,-4.17570174e-01, 1.00861460e-01, 4.78038639e-01,-1.02658860e-01, 6.33986533e-01, 1.52956784e-01,-9.91622582e-02,-1.99439049e-01, 6.69547498e-01,-2.88999289e-01,-3.84845167e-01],
 [ 7.62847960e-02, 1.33699268e-01, 4.67446446e-02, 4.04387623e-01, 2.20515519e-01,-1.01934999e-01,-4.22392368e-01,-2.04135925e-01,-1.95400625e-01,-1.51948154e-01,-2.13719428e-01, 4.30622309e-01,-1.60552025e-01, 5.26524484e-02, 3.03876787e-01, 2.95188576e-01],
 [-8.04305002e-02,-4.03415114e-01, 2.95610428e-01, 1.56386957e-01, 3.84091556e-01, 4.20813650e-01, 4.76504743e-01, 2.24762246e-01,-3.78416449e-01, 3.95774841e-01, 2.88739264e-01,-1.63078412e-01,-3.51540148e-01,-2.30944544e-01, 2.91724414e-01, 3.23701918e-01],
 [-4.36813861e-01,-4.95879352e-02, 7.59843528e-01,-4.00777698e-01, 6.16302602e-02, 3.86851668e-01, 6.36771787e-03, 6.20063618e-02, 1.71980411e-01,-4.22377169e-01, 2.11932212e-01,-1.67891696e-01,-2.03901827e-01,-5.49591482e-01, 5.43069959e-01,-2.90547699e-01],
 [ 1.65351778e-01,-1.26243681e-01, 1.76681846e-01,-1.08310152e-02, 2.55787760e-01, 2.68605292e-01,-1.51869237e-01,-9.29161608e-02,-1.74123198e-01,-3.18009794e-01,-2.17913136e-01, 7.51909912e-02, 2.06224367e-01, 3.32317129e-02,-1.85616419e-01,-1.27134621e-01],
 [-3.53311151e-01,-1.40328258e-01, 2.55005002e-01, 1.27018452e-01,-4.37609643e-01, 4.11110409e-02, 2.85810512e-02, 4.81615663e-01,-3.72425199e-01,-4.40399408e-01,-3.16174299e-01, 1.97075218e-01, 4.39115971e-01, 3.78305495e-01, 2.40574136e-01,-4.10152972e-02],
 [ 1.55916763e-02, 3.88704985e-01, 2.24185765e-01, 5.96063547e-02, 1.12201720e-01,-2.18295246e-01,-1.84695452e-01,-4.12083894e-01, 6.41228259e-02,-3.45464528e-01, 9.14914906e-02, 1.87142193e-02,-2.13105887e-01,-1.61301732e-01,-1.49991810e-02, 4.14087802e-01],
 [ 1.62931994e-01,-1.38092220e-01, 5.94289362e-01,-1.09790713e-01, 4.11666065e-01,-3.62352788e-01,-6.33632004e-01, 5.34040987e-01, 1.55694738e-01, 3.44849586e-01, 1.78955227e-01,-1.09307900e-01, 5.20250976e-01,-2.82481611e-01,-7.29460120e-02, 3.48333806e-01]]
Layer 8:
weights:
[[-0.24292977, 0.22066642,-0.17842916,-0.24681807,-0.07702123, 0.22084232, 0.1607575 ,-0.31988123,-0.3870389 ,-0.07000541, 0.07343933, 0.30402425,-0.23636724,-0.4225356 ,-0.2815123 , 0.11455896],
 [-0.2576915 , 0.26074705,-0.2146431 ,-0.09289843, 0.01219079,-0.04965141,-0.21338865, 0.26017264,-0.23467411, 0.07090321, 0.31574127,-0.23978306, 0.29506138,-0.14418134,-0.00767773, 0.1276882 ],
 [-0.73635495, 0.17607851, 0.04939882, 0.2897554 , 0.56517464,-0.0345598 ,-0.18601352, 0.18777877, 0.44737056,-0.09925579,-0.40467107, 0.05472723,-0.27527505, 0.08099071, 0.8164008 ,-0.28790957],
 [ 0.35817173,-0.00238711,-0.3356231 , 0.39559257,-0.4428452 ,-0.1148942 , 0.22061546,-0.13749537, 0.01576949, 0.04660093,-0.07405857,-0.55695504, 0.084667  , 0.06217999,-0.50099295,-0.19714844],
 [-0.22083677, 0.36869448, 0.03419711, 0.38370687,-0.9860606 ,-0.09102202, 0.5982408 ,-0.40773675,-0.10874695,-0.05208671, 0.34992257,-0.15988676, 0.22089705,-0.33379883, 0.18838266,-0.1874616 ],
 [ 0.09409472,-0.1781453 ,-0.3712505 , 0.36763847, 0.11847909, 0.01971425, 0.02635425, 0.14228202,-0.42949882, 0.10089358,-0.32450068, 0.099465  ,-0.09160267, 0.26501313, 0.3883792 , 0.07894281],
 [ 0.3504649 , 0.62865484,-0.03453134,-0.25953668, 0.24523373, 0.1749827 , 0.08978242,-0.27224514,-0.18618387, 0.27141994, 0.33993816, 0.62403154, 0.14223018, 0.32184914,-0.41511044,-0.27298728],
 [ 0.31676412,-0.5370401 ,-0.26897046, 0.3864101 , 0.5017776 ,-0.08596232,-0.00942662, 0.6533502 , 0.10349313,-0.76771903,-0.5604072 , 0.5862884 , 0.24231344,-0.5623234 ,-0.4014742 ,-0.05738178],
 [-0.31060216, 0.4785827 ,-0.01184431, 0.397791  , 0.362716  , 0.07686303, 0.41038993, 0.07795642,-0.32472494, 0.4521031 ,-0.0440453 , 0.47776356,-0.1891591 ,-0.10857911, 0.1464326 ,-0.2738651 ],
 [ 0.24235408, 0.15477066, 0.10515983,-0.03185293,-0.5105318 , 0.28771442,-0.5992949 , 0.28716105,-0.0478573 , 0.10674727, 0.58555245, 0.4912987 , 0.29516467,-0.08559388, 0.6767568 ,-0.42821956],
 [ 0.01860786,-0.39365324,-0.26005733, 0.31998834, 0.34887674, 0.14962971, 0.04365329,-0.41457066, 0.09564649,-0.35626057,-0.17910022,-0.23509528,-0.3068044 , 0.21034203,-0.3995972 ,-0.16531834],
 [ 0.40690994, 0.08270536, 0.05132285,-0.16768664, 0.09490737, 0.18835324,-0.2716455 ,-0.3476853 , 0.2543959 ,-0.03578176,-0.34712645,-0.36310455, 0.30788517,-0.05671057, 0.37653148, 0.0103547 ],
 [-0.08570075,-0.34342778,-0.32517195, 0.5691282 , 0.41428643, 0.1323231 , 0.34657344, 0.35239267, 0.3457645 ,-0.19751064,-0.04642496,-0.80157584, 0.29258245, 0.4594073 , 0.03107522,-0.3711554 ],
 [ 0.5787908 , 0.04057052,-0.21256323,-0.37384224,-0.07078665, 0.39317313,-0.36475283, 0.65522015,-0.43408063, 0.22050151, 0.23021868,-0.00817113, 0.24120863, 0.727839  ,-0.7184767 , 0.09461817],
 [-0.6955739 , 0.4772853 ,-0.41356406,-0.39181697, 0.55842394, 0.00479926,-0.26549625, 0.45517948,-0.21348685, 0.481998  ,-0.13220492, 0.13228531,-0.05244383,-0.098703  , 0.34813392,-0.31333393],
 [-0.10781252, 0.32077104, 0.4316766 ,-0.25736544, 0.14167355,-0.12505068,-0.31391445,-0.20617126,-0.19132748,-0.385801  ,-0.21356337, 0.16314897,-0.26616564, 0.03813821, 0.15639807, 0.40380773]]
Layer 9:
weights:
[[-0.3908499 , 0.00567569, 0.49872726,-0.1726484 , 0.4544638 , 0.15563762,-0.39149323, 0.66293305,-0.7407268 , 0.1797698 ],
 [ 0.10349746, 0.26351833,-0.49667472,-0.5530309 , 0.18774498, 0.2452293 ,-0.37531763,-0.18017694,-0.21741198, 0.38596857],
 [ 0.05816917, 0.22709942,-0.4701785 ,-0.09977647,-0.14498387,-0.37009996,-0.2799759 ,-0.01802657, 0.3410133 , 0.39282036],
 [ 0.38479587,-0.9310273 , 0.523058  ,-0.12639621, 0.03258337, 0.23492952, 0.5973207 ,-0.13449733, 0.08537295, 0.09940623],
 [ 0.4504613 ,-0.11794072, 0.2554757 ,-0.0689652 , 0.05027633, 0.7688946 , 0.02880348,-0.12004503,-0.91258925, 0.53241   ],
 [-0.53752637, 0.29769924, 0.1727768 , 0.49697948, 0.3175345 , 0.15025188,-0.17592546, 0.06438076, 0.36607212, 0.20623243],
 [ 0.49221924, 0.3896483 ,-0.7463609 ,-0.01526082, 0.47195655,-0.06150584, 0.31959456,-0.0225374 ,-0.2754468 ,-0.32897162],
 [-0.57336277, 0.29458195, 0.13168247, 0.48778322,-0.8108512 , 0.48826844,-0.12656432, 0.31778508, 0.6007323 ,-0.5888431 ],
 [ 0.66899186, 0.24508408, 0.11665558, 0.08266147,-0.2208043 ,-0.28767255, 0.38068148,-0.16314754,-0.2714386 ,-0.10255997],
 [-0.58497   , 0.34360313,-0.73079604,-0.28984445,-0.01999268,-0.19184439, 0.3908479 ,-0.18749431, 0.02552789, 0.04162264],
 [ 0.35568357,-0.13409278, 0.18364726,-0.4411854 , 0.6546641 ,-0.29910994,-0.527842  ,-0.01096195,-0.10079753, 0.24459442],
 [-0.18366672, 0.09499555,-0.44195738, 0.28818965,-0.41983363,-0.37864354,-0.4212053 , 0.6505615 ,-0.7491736 , 0.60378414],
 [-0.17484179, 0.0985337 , 0.12005936, 0.4667168 ,-0.19683136,-0.22237757,-0.12507349, 0.51158696, 0.2998319 , 0.05508269],
 [-0.58640105, 0.658852  , 0.09336785,-0.00400444, 0.15579373, 0.01037628, 0.22708377,-0.60073394,-0.10052902,-0.45744407],
 [ 0.48351666,-0.6108244 , 0.35936424, 0.47293147,-0.3355074 ,-0.40408522,-0.80583113,-0.03926557, 0.4031518 , 0.4152851 ],
 [-0.22384626, 0.3747427 ,-0.40474325, 0.33723718, 0.38474578, 0.34922367, 0.20436126, 0.20938605,-0.16091782, 0.32724   ]]
